
\data\
ngram 1=45
ngram 2=91
ngram 3=103
ngram 4=112
ngram 5=122

\1-grams:
-3.040075	"computer";	-0.4771213
-2.915136	'chemical'	-0.60206
-1.577677	'computer'	-1.939519
-3.040075	'deependra';	-0.4771213
-3.040075	'electrical';	-0.4771213
-1.592917	'mechanical'	-1.924279
-3.040075	'mechanical';	-0.4771213
-3.040075	'metallurgy'	-0.4771213
-1.534925	*	-1.982271
-2.915136	10	-0.60206
-2.739045	10.00	-0.7781513
-3.216166	120050032;	-0.30103
-2.614106	120050042;	-0.90309
-1.603382	20000	-1.618048
-3.040075	4	-0.4771213
-2.739045	4.00	-0.7781513
-2.915136	5	-0.60206
-1.603382	50000	-1.618048
-3.040075	5;	-0.4771213
-3.040075	6	-0.4771213
-2.739045	7	-0.7781513
-2.739045	8	-0.7781513
-2.562953	8;	-0.9542426
-2.739045	9	-0.7781513
-3.040075	9;	-0.4771213
-2.739045	<	-0.7781513
-0.9973679	</s>
-99	<s>	-2.519828
-1.194977	=	-1.123659
-1.247683	>	-1.502882
-1.479769	and	-2.037426
-3.040075	count(*)	-0.4771213
-1.873743	cpi	-1.070038
-3.040075	credits	-0.4771213
-1.247683	department	-1.970811
-0.9973679	from	-2.045324
-2.136985	hostel	-1.09691
-1.129806	instructor	-2.088136
-1.508596	name	-1.711807
-1.960893	rno	-1.267172
-1.129806	salary	-2.088136
-0.9973679	select	-1.575957
-1.636382	student	-1.880814
-2.403253	student;	-1.113943
-1.051813	where	-1.694605

\2-grams:
-0.1547763	"computer"; </s>
-0.1106131	'chemical' </s>
-0.004513035	'computer' </s>
-0.1547763	'deependra'; </s>
-0.1547763	'electrical'; </s>
-0.004675085	'mechanical' </s>
-0.1547763	'mechanical'; </s>
-0.1547763	'metallurgy' </s>
-0.00408794	* from	-1.514106
-0.1106131	10 </s>
-0.07052931	10.00 </s>
-0.2593974	120050032; </s>
-0.05179445	120050042; </s>
-0.4844898	20000 </s>
-0.1861518	20000 and	-1.740363
-0.1547763	4 </s>
-0.07052931	4.00 </s>
-0.1106131	5 </s>
-0.4844898	50000 </s>
-0.1861518	50000 and	-1.740363
-0.1547763	5; </s>
-0.1547763	6 </s>
-0.07052931	7 </s>
-0.07052931	8 </s>
-0.0457249	8; </s>
-0.07052931	9 </s>
-0.1547763	9; </s>
-0.07902287	< 10.00	-0.7781513
-0.00118167	<s> select	-1.575937
-2.049725	= "computer";	-0.4771213
-1.874005	= 'chemical'	-0.60206
-0.4173457	= 'computer'	-1.939519
-2.049725	= 'deependra';	-0.4771213
-2.049725	= 'electrical';	-0.4771213
-0.4327652	= 'mechanical'	-1.924279
-2.049725	= 'mechanical';	-0.4771213
-2.049725	= 'metallurgy'	-0.4771213
-1.874005	= 10	-0.60206
-2.349643	= 120050032;
-1.506453	= 120050042;	-0.90309
-2.049725	= 4	-0.4771213
-1.874005	= 5	-0.60206
-2.049725	= 5;	-0.4771213
-2.049725	= 6	-0.4771213
-1.652454	= 9	-0.7781513
-2.049725	= 9;	-0.4771213
-0.3717473	> 20000	-1.618065
-1.581114	> 4.00	-0.7781513
-0.3717473	> 50000	-1.618065
-1.581114	> 7	-0.7781513
-1.581114	> 8	-0.7781513
-1.377053	> 8;	-0.9542425
-0.003775461	and department	-2.037426
-0.1547763	count(*) from	-0.4771213
-0.9724947	cpi <	-0.7781513
-0.9514987	cpi =	-0.7781513
-0.3061208	cpi >	-0.8293039
-0.654963	cpi from	-0.7781513
-0.1547763	credits from	-0.4771213
-0.0162612	department =	-1.426744
-1.555737	department from	-0.7781512
-0.1364405	from instructor	-2.088084
-0.6469818	from student	-1.880814
-1.442834	from student;	-1.113943
-0.2478698	hostel =	-0.5228787
-0.4340948	hostel from	-0.9999999
-0.9545777	instructor </s>
-0.05435558	instructor where	-2.037426
-1.684935	name =	-0.4771213
-0.01632023	name from	-1.531492
-0.6582362	rno =	-0.5182481
-0.1336134	rno from	-1.161368
-0.1793481	salary >	-1.913821
-0.4796036	salary from	-1.913814
-0.5512772	select *	-1.982271
-2.227391	select count(*)	-0.4771213
-1.525004	select cpi	-1.041393
-2.227391	select credits	-0.4771213
-1.789142	select department	-0.7781513
-1.572801	select hostel	-1
-0.5333422	select name	-2
-1.097255	select rno	-1.447158
-0.6181505	select salary	-1.913814
-0.005238696	student where	-1.20412
-0.03113616	student; </s>
-0.9531878	where cpi	-1.079181
-0.6133827	where department	-1.863323
-1.325273	where hostel	-1.176091
-2.133103	where name	-0.4771213
-1.566117	where rno	-0.9542425
-0.2620502	where salary	-2.212188

\3-grams:
-0.0457249	= "computer"; </s>
-0.02512555	= 'chemical' </s>
-5.160844e-05	= 'computer' </s>
-0.0457249	= 'deependra'; </s>
-0.0457249	= 'electrical'; </s>
-5.536082e-05	= 'mechanical' </s>
-0.0457249	= 'mechanical'; </s>
-0.0457249	= 'metallurgy' </s>
-4.238499e-05	select * from	-1.514588
-0.02512555	= 10 </s>
-0.01098786	< 10.00 </s>
-0.006146431	= 120050042; </s>
-0.4772973	> 20000 </s>
-0.176331	> 20000 and	2.062701
-0.0457249	= 4 </s>
-0.01098786	> 4.00 </s>
-0.02512555	= 5 </s>
-0.4772973	> 50000 </s>
-0.176331	> 50000 and	2.062701
-0.0457249	= 5; </s>
-0.0457249	= 6 </s>
-0.01098786	> 7 </s>
-0.01098786	> 8 </s>
-0.004849207	> 8; </s>
-0.01098786	= 9 </s>
-0.0457249	= 9; </s>
-0.01221183	cpi < 10.00	-0.7781512
-0.07725196	cpi = 9	-0.7781512
-1.957463	department = "computer";	-0.4771212
-1.781383	department = 'chemical'	-0.60206
-0.3240275	department = 'computer'	1.98557
-1.957463	department = 'electrical';	-0.4771212
-0.3394478	department = 'mechanical'	1.97033
-1.957463	department = 'mechanical';	-0.4771212
-1.957463	department = 'metallurgy'	-0.4771212
-0.8124518	hostel = 10	-0.60206
-0.9885334	hostel = 4	-0.4771212
-0.8124518	hostel = 5	-0.60206
-0.9885334	hostel = 5;	-0.4771212
-0.9885334	hostel = 6	-0.4771212
-0.9885334	hostel = 9;	-0.4771212
-0.174159	name = 'deependra';	-0.4771212
-0.1510531	rno = 120050042;	-0.9030901
-0.723373	cpi > 4.00	-0.7781512
-0.723373	cpi > 7	-0.7781512
-0.723373	cpi > 8	-0.7781512
-0.5192543	cpi > 8;	-0.9542425
-0.3018266	salary > 20000	-1.617962
-0.3018266	salary > 50000	-1.617962
-6.835262e-05	20000 and department	-1.740363
-6.835262e-05	50000 and department	-1.740363
-0.0457249	select count(*) from	-0.4771212
-0.03188535	select cpi from	-0.778151
-0.8304223	where cpi <	-0.7781513
-0.8291318	where cpi =	-0.7781513
-0.1674464	where cpi >	-0.8293045
-0.0457249	select credits from	-0.4771213
-0.0001464516	and department =	-1.740366
-0.07677205	select department from	-0.7781513
-0.0002186925	where department =	-1.05253
-0.07114872	* from instructor	2.649345
-0.8882335	* from student	-1.113943
-1.667311	* from student;	-0.4771211
-0.1683282	count(*) from student;	-0.4771211
-0.15228	cpi from student	-0.9542427
-0.7627615	cpi from student;	-0.4771211
-0.1297067	credits from student	-0.4771214
-0.06002894	department from student	-0.778151
-0.03501322	hostel from student	-1
-0.08852281	name from instructor	2.649345
-0.7865005	name from student	-1.230449
-1.684685	name from student;	-0.4771211
-0.0922391	rno from student	-1.380211
-0.8525749	rno from student;	-0.6989698
-0.001430239	salary from instructor	2.649345
-0.02835086	select hostel from	-1
-0.0127776	where hostel =	-0.5228789
-0.9542453	from instructor </s>
-0.05117857	from instructor where	-2.037563
-0.0001602034	select name from	-1.531684
-0.1716287	where name =	-0.4771212
-0.00412723	select rno from	-1.161368
-0.03938831	where rno =	-0.2672815
-0.003555425	select salary from	-1.913814
-0.0009023349	where salary >	-1.914056
-0.5410655	<s> select *	2.028322
-2.217744	<s> select count(*)	-0.4771212
-1.518685	<s> select cpi	-1.041393
-2.217744	<s> select credits	-0.4771212
-1.818709	<s> select department	-0.7781512
-1.564496	<s> select hostel	-0.9999999
-0.5231533	<s> select name	-2
-1.087415	<s> select rno	-1.447158
-0.6102426	<s> select salary	-1.913814
-6.852154e-05	from student where	-1.204122
-0.002317421	from student; </s>
-0.6021625	instructor where department	-1.740363
-0.1260188	instructor where salary	-2.212188
-0.3773081	student where cpi	-1.07918
-0.6193856	student where department	-1.278753
-0.749689	student where hostel	-1.176091
-1.594141	student where name	-0.4771212
-0.9926905	student where rno	-0.9542426

\4-grams:
-0.01471314	department = "computer"; </s>
-0.006146431	department = 'chemical' </s>
-0.005020801	department = 'computer' </s>
-0.01471314	name = 'deependra'; </s>
-0.01471314	department = 'electrical'; </s>
-0.005201194	department = 'mechanical' </s>
-0.01471314	department = 'mechanical'; </s>
-0.01471314	department = 'metallurgy' </s>
-0.004547628	<s> select * from	3.606257
-0.006146431	hostel = 10 </s>
-0.001812113	cpi < 10.00 </s>
-0.0007635634	rno = 120050042; </s>
-0.4771255	salary > 20000 </s>
-0.176097	salary > 20000 and	-1.740363
-0.01471314	hostel = 4 </s>
-0.001812113	cpi > 4.00 </s>
-0.006146431	hostel = 5 </s>
-0.4771255	salary > 50000 </s>
-0.176097	salary > 50000 and	-1.740363
-0.01471314	hostel = 5; </s>
-0.01471314	hostel = 6 </s>
-0.001812113	cpi > 7 </s>
-0.001812113	cpi > 8 </s>
-0.0005361346	cpi > 8; </s>
-0.001812113	cpi = 9 </s>
-0.01471314	hostel = 9; </s>
-0.002011607	where cpi < 10.00	-0.7781513
-0.01195832	where cpi = 9	-0.7781513
-0.3014374	and department = 'computer'	-1.740363
-0.301699	and department = 'mechanical'	-1.740363
-1.580148	where department = "computer";	-0.4771212
-1.404057	where department = 'chemical'	-0.60206
-0.3496127	where department = 'computer'	-1.518514
-1.580148	where department = 'electrical';	-0.4771212
-0.3897215	where department = 'mechanical'	-1.477121
-1.580148	where department = 'mechanical';	-0.4771212
-1.580148	where department = 'metallurgy'	-0.4771212
-0.7072945	where hostel = 10	-0.60206
-0.8833835	where hostel = 4	-0.4771212
-0.7072945	where hostel = 5	-0.60206
-0.8833835	where hostel = 5;	-0.4771212
-0.8833835	where hostel = 6	-0.4771212
-0.8833835	where hostel = 9;	-0.4771212
-0.05066865	where name = 'deependra';	-0.4771212
-0.07507686	where rno = 120050042;	-0.9030898
-0.6712213	where cpi > 4.00	-0.7781513
-0.6712213	where cpi > 7	-0.7781513
-0.6712213	where cpi > 8	-0.7781513
-0.4671015	where cpi > 8;	-0.9542425
-0.3010397	where salary > 20000	3.298377
-0.3010397	where salary > 50000	3.298377
-0.00796893	> 20000 and department	3.472164
-0.00796893	> 50000 and department	3.472164
-0.01471314	<s> select count(*) from	-0.4771213
-0.002803848	<s> select cpi from	-0.778152
-0.8204401	student where cpi <	-0.7781513
-0.8203349	student where cpi =	-0.7781513
-0.1576645	student where cpi >	-0.8293089
-0.01471314	<s> select credits from	-0.4771212
-2.662315e-06	20000 and department =	-1.446896
-2.662315e-06	50000 and department =	-1.446896
-0.01188947	<s> select department from	-0.7781513
-3.975244e-06	instructor where department =	-1.447158
-1.150738e-05	student where department =	-0.5528364
-0.06929693	select * from instructor	-1.618043
-0.8982231	select * from student	3.801991
-1.676403	select * from student;	-0.4771214
-0.04919871	select count(*) from student;	-0.4771214
-0.1056619	select cpi from student	3.801992
-0.7089723	select cpi from student;	-0.4771214
-0.03908372	select credits from student	-0.4771214
-0.009446156	select department from student	-0.7781515
-0.003376996	select hostel from student	3.801991
-0.08719049	select name from instructor	-1.618043
-0.7913669	select name from student	3.801991
-1.69431	select name from student;	-0.4771214
-0.07115756	select rno from student	3.801991
-0.8308693	select rno from student;	-0.6989701
-1.74136e-05	select salary from instructor	-1.618043
-0.002753239	<s> select hostel from	-1
-0.000840243	student where hostel =	-0.5228788
-0.9648356	* from instructor </s>
-0.0617456	* from instructor where	3.185642
-0.9648356	name from instructor </s>
-0.0617456	name from instructor where	3.185642
-0.9648356	salary from instructor </s>
-0.0617456	salary from instructor where	3.185642
-1.601742e-06	<s> select name from	3.623366
-0.05003257	student where name =	-0.4771212
-0.0001467277	<s> select rno from	-1.16136
-0.004204167	student where rno =	-0.08097088
-4.318399e-05	<s> select salary from	2.483091
-5.530085e-06	instructor where salary >	2.737201
-5.270504e-06	* from student where	-0.69897
-7.612971e-06	cpi from student where	-0.3222249
-2.283931e-05	credits from student where
-1.141951e-05	department from student where	-0.7781512
-6.851668e-06	hostel from student where	-0.6020599
-4.03038e-06	name from student where	-0.8016325
-2.854848e-06	rno from student where	-0.9378521
-0.0007711004	* from student; </s>
-0.0007711004	count(*) from student; </s>
-0.0007711004	cpi from student; </s>
-0.0007711004	name from student; </s>
-0.0004624959	rno from student; </s>
-0.6020609	from instructor where department	3.29806
-0.1249486	from instructor where salary	2.682868
-0.3578162	from student where cpi	-1.079199
-0.6197636	from student where department	3.298059
-0.7302018	from student where hostel	-1.176091
-1.575261	from student where name	-0.4771212
-0.9732377	from student where rno	-0.9542425

\5-grams:
-0.004849207	where department = "computer"; </s>
-0.001528472	where department = 'chemical' </s>
-9.077114e-05	and department = 'computer' </s>
-0.0001512958	where department = 'computer' </s>
-0.004849207	where name = 'deependra'; </s>
-0.004849207	where department = 'electrical'; </s>
-9.40133e-05	and department = 'mechanical' </s>
-0.0001723733	where department = 'mechanical' </s>
-0.004849207	where department = 'mechanical'; </s>
-0.004849207	where department = 'metallurgy' </s>
-0.001528472	where hostel = 10 </s>
-0.0003014943	where cpi < 10.00 </s>
-9.537204e-05	where rno = 120050042; </s>
-0.4877143	where salary > 20000 </s>
-0.1866843	where salary > 20000 and
-0.004849207	where hostel = 4 </s>
-0.0003014943	where cpi > 4.00 </s>
-0.001528472	where hostel = 5 </s>
-0.4877143	where salary > 50000 </s>
-0.1866843	where salary > 50000 and
-0.004849207	where hostel = 5; </s>
-0.004849207	where hostel = 6 </s>
-0.0003014943	where cpi > 7 </s>
-0.0003014943	where cpi > 8 </s>
-5.953784e-05	where cpi > 8; </s>
-0.0003014943	where cpi = 9 </s>
-0.004849207	where hostel = 9; </s>
-0.0003346215	student where cpi < 10.00
-0.001970327	student where cpi = 9
-0.3010446	20000 and department = 'computer'
-0.3010539	20000 and department = 'mechanical'
-0.3010446	50000 and department = 'computer'
-0.3010539	50000 and department = 'mechanical'
-0.3026747	instructor where department = 'computer'
-0.3039045	instructor where department = 'mechanical'
-1.058676	student where department = "computer";
-0.882585	student where department = 'chemical'
-0.4878722	student where department = 'computer'
-1.058676	student where department = 'electrical';
-0.7118858	student where department = 'mechanical'
-1.058676	student where department = 'mechanical';
-1.058676	student where department = 'metallurgy'
-0.6801429	student where hostel = 10
-0.8562335	student where hostel = 4
-0.6801429	student where hostel = 5
-0.8562335	student where hostel = 5;
-0.8562335	student where hostel = 6
-0.8562335	student where hostel = 9;
-0.01624148	student where name = 'deependra';
-0.06135558	student where rno = 120050042;
-0.6640013	student where cpi > 4.00
-0.6640013	student where cpi > 7
-0.6640013	student where cpi > 8
-0.4598814	student where cpi > 8;
-0.3063588	instructor where salary > 20000
-0.3063588	instructor where salary > 50000
-0.0001435922	salary > 20000 and department
-0.0001435922	salary > 50000 and department
-0.8196185	from student where cpi <
-0.8196098	from student where cpi =
-0.1568592	from student where cpi >
-0.00796893	> 20000 and department =
-0.00796893	> 50000 and department =
-0.00796893	from instructor where department =
-0.0234811	from student where department =
-0.08274106	<s> select * from instructor
-0.9120448	<s> select * from student
-1.690196	<s> select * from student;
-0.01578831	<s> select count(*) from student;
-0.09835646	<s> select cpi from student
-0.7006211	<s> select cpi from student;
-0.01264109	<s> select credits from student
-0.00156016	<s> select department from student
-0.0003365204	<s> select hostel from student
-0.1001152	<s> select name from instructor
-0.8044802	<s> select name from student
-1.70757	<s> select name from student;
-0.0697407	<s> select rno from student
-0.8294116	<s> select rno from student;
-0.005328834	<s> select salary from instructor
-5.596565e-05	from student where hostel =
-0.9544948	select * from instructor </s>
-0.05140476	select * from instructor where
-0.9544948	select name from instructor </s>
-0.05140476	select name from instructor where
-0.9544948	select salary from instructor </s>
-0.05140476	select salary from instructor where
-0.01604551	from student where name =
-0.0004651249	from student where rno =
-0.00267259	from instructor where salary >
-0.03476211	select * from student where
-0.05115252	select cpi from student where
-7.612971e-06	select credits from student where
-1.90323e-06	select department from student where
-0.04575749	select hostel from student where
-0.02632894	select name from student where
-0.01848341	select rno from student where
-0.0002568814	select * from student; </s>
-0.0002568814	select count(*) from student; </s>
-0.0002568814	select cpi from student; </s>
-0.0002568814	select name from student; </s>
-9.245979e-05	select rno from student; </s>
-0.6139592	* from instructor where department
-0.136838	* from instructor where salary
-0.6139592	name from instructor where department
-0.136838	name from instructor where salary
-0.6139592	salary from instructor where department
-0.136838	salary from instructor where salary
-0.2068548	* from student where cpi
-0.7415157	* from student where department
-0.8580751	* from student where name
-0.2407396	cpi from student where rno
-0.04265484	department from student where cpi
-0.2787289	hostel from student where cpi
-0.6446057	hostel from student where department
-0.6712185	hostel from student where hostel
-0.338235	name from student where department
-0.4619579	name from student where hostel
-0.91344	name from student where rno
-0.2023557	rno from student where cpi
-0.7410275	rno from student where department
-0.7561641	rno from student where hostel

\end\
